digraph Tree {
node [shape=box] ;
0 [label="X[142] <= 0.0422\ngini = 0.4997\nsamples = 117\nvalue = [60, 57]"] ;
1 [label="X[145] <= 0.0102\ngini = 0.4898\nsamples = 105\nvalue = [60, 45]"] ;
0 -> 1 [labeldistance=2.5, labelangle=45, headlabel="True"] ;
2 [label="X[194] <= 0.0047\ngini = 0.4654\nsamples = 95\nvalue = [60, 35]"] ;
1 -> 2 ;
3 [label="X[30] <= 0.0247\ngini = 0.4339\nsamples = 88\nvalue = [60, 28]"] ;
2 -> 3 ;
4 [label="X[62] <= 0.0304\ngini = 0.4036\nsamples = 82\nvalue = [59, 23]"] ;
3 -> 4 ;
5 [label="X[131] <= 0.0207\ngini = 0.3781\nsamples = 79\nvalue = [59, 20]"] ;
4 -> 5 ;
6 [label="X[29] <= 0.0812\ngini = 0.3582\nsamples = 77\nvalue = [59, 18]"] ;
5 -> 6 ;
7 [label="X[137] <= 0.0709\ngini = 0.3356\nsamples = 75\nvalue = [59, 16]"] ;
6 -> 7 ;
8 [label="X[19] <= 0.188\ngini = 0.31\nsamples = 73\nvalue = [59, 14]"] ;
7 -> 8 ;
9 [label="X[47] <= 0.1267\ngini = 0.2809\nsamples = 71\nvalue = [59, 12]"] ;
8 -> 9 ;
10 [label="X[178] <= 0.0919\ngini = 0.2478\nsamples = 69\nvalue = [59, 10]"] ;
9 -> 10 ;
11 [label="X[109] <= 0.0457\ngini = 0.2103\nsamples = 67\nvalue = [59, 8]"] ;
10 -> 11 ;
12 [label="X[150] <= 0.106\ngini = 0.1699\nsamples = 64\nvalue = [58, 6]"] ;
11 -> 12 ;
13 [label="X[281] <= 0.0864\ngini = 0.1461\nsamples = 63\nvalue = [58, 5]"] ;
12 -> 13 ;
14 [label="X[207] <= 0.1627\ngini = 0.1207\nsamples = 62\nvalue = [58, 4]"] ;
13 -> 14 ;
15 [label="X[11] <= 0.0886\ngini = 0.0935\nsamples = 61\nvalue = [58, 3]"] ;
14 -> 15 ;
16 [label="X[180] <= 0.1353\ngini = 0.0644\nsamples = 60\nvalue = [58, 2]"] ;
15 -> 16 ;
17 [label="X[10] <= 0.0031\ngini = 0.0333\nsamples = 59\nvalue = [58, 1]"] ;
16 -> 17 ;
18 [label="X[9] <= 0.0186\ngini = 0.0605\nsamples = 32\nvalue = [31, 1]"] ;
17 -> 18 ;
19 [label="X[60] <= 0.0134\ngini = 0.0832\nsamples = 23\nvalue = [22, 1]"] ;
18 -> 19 ;
20 [label="X[46] <= 0.0399\ngini = 0.1049\nsamples = 18\nvalue = [17, 1]"] ;
19 -> 20 ;
21 [label="X[7] <= 0.0285\ngini = 0.1244\nsamples = 15\nvalue = [14, 1]"] ;
20 -> 21 ;
22 [label="X[90] <= 0.107\ngini = 0.1528\nsamples = 12\nvalue = [11, 1]"] ;
21 -> 22 ;
23 [label="X[188] <= 0.1534\ngini = 0.1653\nsamples = 11\nvalue = [10, 1]"] ;
22 -> 23 ;
24 [label="X[127] <= 0.0982\ngini = 0.18\nsamples = 10\nvalue = [9, 1]"] ;
23 -> 24 ;
25 [label="X[6] <= 0.5\ngini = 0.1975\nsamples = 9\nvalue = [8, 1]"] ;
24 -> 25 ;
26 [label="X[32] <= 0.0641\ngini = 0.2188\nsamples = 8\nvalue = [7, 1]"] ;
25 -> 26 ;
27 [label="X[69] <= 0.2156\ngini = 0.2449\nsamples = 7\nvalue = [6, 1]"] ;
26 -> 27 ;
28 [label="X[246] <= 0.5\ngini = 0.2778\nsamples = 6\nvalue = [5, 1]"] ;
27 -> 28 ;
29 [label="X[34] <= 0.5\ngini = 0.32\nsamples = 5\nvalue = [4, 1]"] ;
28 -> 29 ;
30 [label="X[78] <= 0.5\ngini = 0.375\nsamples = 4\nvalue = [3, 1]"] ;
29 -> 30 ;
31 [label="X[122] <= 0.5\ngini = 0.4444\nsamples = 3\nvalue = [2, 1]"] ;
30 -> 31 ;
32 [label="gini = 0.5\nsamples = 2\nvalue = [1, 1]"] ;
31 -> 32 ;
33 [label="gini = 0.0\nsamples = 1\nvalue = [1, 0]"] ;
31 -> 33 ;
34 [label="gini = 0.0\nsamples = 1\nvalue = [1, 0]"] ;
30 -> 34 ;
35 [label="gini = 0.0\nsamples = 1\nvalue = [1, 0]"] ;
29 -> 35 ;
36 [label="gini = 0.0\nsamples = 1\nvalue = [1, 0]"] ;
28 -> 36 ;
37 [label="gini = 0.0\nsamples = 1\nvalue = [1, 0]"] ;
27 -> 37 ;
38 [label="gini = 0.0\nsamples = 1\nvalue = [1, 0]"] ;
26 -> 38 ;
39 [label="gini = 0.0\nsamples = 1\nvalue = [1, 0]"] ;
25 -> 39 ;
40 [label="gini = 0.0\nsamples = 1\nvalue = [1, 0]"] ;
24 -> 40 ;
41 [label="gini = 0.0\nsamples = 1\nvalue = [1, 0]"] ;
23 -> 41 ;
42 [label="gini = 0.0\nsamples = 1\nvalue = [1, 0]"] ;
22 -> 42 ;
43 [label="gini = 0.0\nsamples = 3\nvalue = [3, 0]"] ;
21 -> 43 ;
44 [label="gini = 0.0\nsamples = 3\nvalue = [3, 0]"] ;
20 -> 44 ;
45 [label="gini = 0.0\nsamples = 5\nvalue = [5, 0]"] ;
19 -> 45 ;
46 [label="gini = 0.0\nsamples = 9\nvalue = [9, 0]"] ;
18 -> 46 ;
47 [label="gini = 0.0\nsamples = 27\nvalue = [27, 0]"] ;
17 -> 47 ;
48 [label="gini = 0.0\nsamples = 1\nvalue = [0, 1]"] ;
16 -> 48 ;
49 [label="gini = 0.0\nsamples = 1\nvalue = [0, 1]"] ;
15 -> 49 ;
50 [label="gini = 0.0\nsamples = 1\nvalue = [0, 1]"] ;
14 -> 50 ;
51 [label="gini = 0.0\nsamples = 1\nvalue = [0, 1]"] ;
13 -> 51 ;
52 [label="gini = 0.0\nsamples = 1\nvalue = [0, 1]"] ;
12 -> 52 ;
53 [label="X[10] <= 0.0287\ngini = 0.4444\nsamples = 3\nvalue = [1, 2]"] ;
11 -> 53 ;
54 [label="gini = 0.0\nsamples = 1\nvalue = [1, 0]"] ;
53 -> 54 ;
55 [label="gini = 0.0\nsamples = 2\nvalue = [0, 2]"] ;
53 -> 55 ;
56 [label="gini = 0.0\nsamples = 2\nvalue = [0, 2]"] ;
10 -> 56 ;
57 [label="gini = 0.0\nsamples = 2\nvalue = [0, 2]"] ;
9 -> 57 ;
58 [label="gini = 0.0\nsamples = 2\nvalue = [0, 2]"] ;
8 -> 58 ;
59 [label="gini = 0.0\nsamples = 2\nvalue = [0, 2]"] ;
7 -> 59 ;
60 [label="gini = 0.0\nsamples = 2\nvalue = [0, 2]"] ;
6 -> 60 ;
61 [label="gini = 0.0\nsamples = 2\nvalue = [0, 2]"] ;
5 -> 61 ;
62 [label="gini = 0.0\nsamples = 3\nvalue = [0, 3]"] ;
4 -> 62 ;
63 [label="X[34] <= 0.0642\ngini = 0.2778\nsamples = 6\nvalue = [1, 5]"] ;
3 -> 63 ;
64 [label="gini = 0.0\nsamples = 5\nvalue = [0, 5]"] ;
63 -> 64 ;
65 [label="gini = 0.0\nsamples = 1\nvalue = [1, 0]"] ;
63 -> 65 ;
66 [label="gini = 0.0\nsamples = 7\nvalue = [0, 7]"] ;
2 -> 66 ;
67 [label="gini = 0.0\nsamples = 10\nvalue = [0, 10]"] ;
1 -> 67 ;
68 [label="gini = 0.0\nsamples = 12\nvalue = [0, 12]"] ;
0 -> 68 [labeldistance=2.5, labelangle=-45, headlabel="False"] ;
}